<?xml version="1.0"?>
<opencv_storage>
<opencv_ml_svm>
  <format>3</format>
  <svmType>C_SVC</svmType>
  <kernel>
    <type>RBF</type>
    <gamma>1.5000000000000001e-04</gamma></kernel>
  <C>1.0000000000000001e-01</C>
  <term_criteria><epsilon>1.1920928955078125e-07</epsilon>
    <iterations>20000</iterations></term_criteria>
  <var_count>166</var_count>
  <class_count>2</class_count>
  <class_labels type_id="opencv-matrix">
    <rows>2</rows>
    <cols>1</cols>
    <dt>i</dt>
    <data>
      -1 1</data></class_labels>
  <sv_total>9</sv_total>
  <support_vectors>
    <_>
      3.45360816e-01 0. 0. 4.63917516e-02 2.57731955e-02 0.
      5.15463902e-03 0. 1.03092780e-02 0. 1.03092780e-02 0. 0.
      5.15463902e-03 2.57731955e-02 1.03092780e-02 0. 0. 5.67010306e-02
      0. 4.12371121e-02 5.67010306e-02 3.09278332e-02 0. 5.15463902e-03
      0. 0. 0. 0. 0. 4.12371121e-02 0. 5.15463902e-03 0. 0. 0. 0. 0. 0.
      0. 5.15463902e-03 0. 0. 0. 0. 0. 0. 0. 1.03092780e-02 0. 0. 0. 0.
      6.70103058e-02 0. 0. 0. 0. 0. 0. 3.09278332e-02 5.15463902e-03 0.
      0. 0. 0. 2.06185561e-02 0. 0. 0. 0. 0. 0. 0. 0. 0. 2.06185561e-02
      0. 0. 0. 0. 0. 0. 0. 0. 0. 0. 0. 0. 0. 0. 0. 0. 0. 0. 0. 0. 0. 0.
      0. 5.15463902e-03 0. 0. 0. 0. 5.15463902e-03 0. 0. 0. 0. 0. 0. 0.
      0. 0. 0. 0. 0. 0. 0. 0. 0. 0. 0. 0. 0. 0. 0. 0. 0. 0. 0. 0. 0. 0.
      0. 0. 0. 0. 0. 0. 0. 0. 0. 0. 0. 0. 0. 0. 0. 0. 0. 0. 0. 0. 0. 0.
      0. 1.08247422e-01 0. 0. 0. 0. 0. 0. 0.</_>
    <_>
      1. 0. 0. 0. 0. 0. 0. 0. 0. 0. 0. 0. 0. 0. 0. 0. 0. 0. 0. 0. 0. 0.
      0. 0. 0. 0. 0. 0. 0. 0. 0. 0. 0. 0. 0. 0. 0. 0. 0. 0. 0. 0. 0. 0.
      0. 0. 0. 0. 0. 0. 0. 0. 0. 0. 0. 0. 0. 0. 0. 0. 0. 0. 0. 0. 0. 0.
      0. 0. 0. 0. 0. 0. 0. 0. 0. 0. 0. 0. 0. 0. 0. 0. 0. 0. 0. 0. 0. 0.
      0. 0. 0. 0. 0. 0. 0. 0. 0. 0. 0. 0. 0. 0. 0. 0. 0. 0. 0. 0. 0. 0.
      0. 0. 0. 0. 0. 0. 0. 0. 0. 0. 0. 0. 0. 0. 0. 0. 0. 0. 0. 0. 0. 0.
      0. 0. 0. 0. 0. 0. 0. 0. 0. 0. 0. 0. 0. 0. 0. 0. 0. 0. 0. 0. 0. 0.
      0. 0. 0. 0. 0. 0. 0. 0. 0. 0. 0. 0.</_>
    <_>
      4.06250000e-01 0. 0. 5.00000007e-02 1.87500007e-02 0. 0. 0. 0. 0.
      0. 0. 0. 6.25000009e-03 4.37499993e-02 2.50000004e-02 0. 0.
      3.75000015e-02 0. 1.25000002e-02 6.87500015e-02 6.25000009e-03 0.
      6.25000009e-03 0. 0. 0. 0. 0. 1.25000002e-02 0. 1.25000002e-02 0.
      0. 0. 0. 0. 0. 0. 0. 0. 0. 0. 0. 0. 0. 0. 0. 0. 0. 0. 0.
      6.87500015e-02 0. 0. 0. 0. 0. 0. 2.50000004e-02 0. 0. 0. 0. 0.
      1.87500007e-02 0. 0. 0. 0. 0. 0. 0. 0. 6.25000009e-03
      6.25000009e-03 0. 0. 0. 0. 0. 0. 0. 0. 0. 0. 0. 0. 0. 0. 0. 0. 0.
      0. 0. 0. 0. 0. 6.25000009e-03 0. 0. 0. 0. 0. 0. 0. 0. 0. 0. 0. 0.
      0. 0. 0. 0. 0. 0. 0. 0. 0. 0. 0. 0. 0. 0. 0. 0. 0. 0. 0. 0. 0. 0.
      0. 0. 0. 0. 0. 0. 0. 0. 0. 0. 0. 0. 0. 0. 0. 0. 0. 0.
      6.25000009e-03 0. 0. 0. 0. 6.25000009e-03 1.50000006e-01 0. 0. 0.
      0. 0. 0. 0.</_>
    <_>
      5.71428597e-01 0. 0. 0. 0. 0. 0. 0. 0. 0. 0. 0. 0. 0. 0. 0. 0. 0.
      1.42857149e-01 0. 0. 0. 0. 0. 0. 0. 0. 0. 0. 0. 0. 0. 0. 0. 0. 0.
      0. 0. 0. 0. 0. 0. 0. 0. 0. 0. 0. 0. 0. 0. 0. 0. 0. 1.42857149e-01
      0. 0. 0. 0. 0. 0. 0. 0. 0. 0. 0. 0. 1.42857149e-01 0. 0. 0. 0. 0.
      0. 0. 0. 0. 0. 0. 0. 0. 0. 0. 0. 0. 0. 0. 0. 0. 0. 0. 0. 0. 0. 0.
      0. 0. 0. 0. 0. 0. 0. 0. 0. 0. 0. 0. 0. 0. 0. 0. 0. 0. 0. 0. 0. 0.
      0. 0. 0. 0. 0. 0. 0. 0. 0. 0. 0. 0. 0. 0. 0. 0. 0. 0. 0. 0. 0. 0.
      0. 0. 0. 0. 0. 0. 0. 0. 0. 0. 0. 0. 0. 0. 0. 0. 0. 0. 0. 0. 0. 0.
      0. 0. 0. 0. 0. 0.</_>
    <_>
      1.09243706e-01 0. 0. 1.17647067e-01 1.68067235e-02 0. 0. 0. 0. 0.
      1.68067235e-02 0. 0. 8.40336177e-03 5.04201725e-02 3.36134471e-02
      0. 0. 1.17647067e-01 0. 0. 8.40336159e-02 8.40336177e-03 0.
      1.68067235e-02 8.40336177e-03 8.40336177e-03 0. 0. 0.
      2.52100863e-02 0. 1.68067235e-02 0. 8.40336177e-03 0. 0. 0. 0. 0.
      0. 8.40336177e-03 0. 0. 0. 0. 0. 0. 3.36134471e-02 0. 0. 0. 0.
      8.40336159e-02 0. 0. 0. 0. 0. 0. 2.52100863e-02 0. 0. 0. 0. 0.
      1.68067235e-02 0. 0. 0. 0. 0. 0. 0. 0. 2.52100863e-02
      5.88235334e-02 0. 0. 0. 0. 0. 0. 0. 0. 0. 0. 0. 0. 0. 0. 0. 0. 0.
      0. 0. 0. 0. 0. 0. 0. 0. 0. 0. 0. 0. 0. 0. 0. 0. 0. 0. 0. 0. 0. 0.
      0. 0. 0. 0. 0. 0. 0. 0. 0. 0. 8.40336177e-03 0. 0. 0. 0. 0. 0. 0.
      0. 0. 0. 0. 0. 0. 0. 0. 0. 0. 0. 0. 0. 0. 0. 0. 0. 0.
      8.40336177e-03 0. 0. 0. 0. 0. 8.40336159e-02 0. 0. 0. 0. 0. 0. 0.</_>
    <_>
      8.33333358e-02 0. 0. 0. 0. 0. 0. 0. 0. 0. 0. 0. 0. 0. 0.
      8.33333358e-02 0. 0. 0. 0. 0. 0. 0. 0. 0. 0. 0. 0. 0. 0.
      8.33333358e-02 0. 0. 0. 0. 0. 0. 0. 0. 0. 0. 0. 0. 0. 0. 0. 0. 0.
      8.33333358e-02 0. 0. 0. 0. 8.33333358e-02 0. 0. 0. 0. 0. 0.
      8.33333358e-02 0. 0. 0. 0. 0. 0. 0. 0. 0. 0. 0. 0. 0. 0. 0.
      1.66666672e-01 0. 0. 0. 0. 0. 0. 0. 0. 0. 0. 0. 0. 0. 0. 0. 0. 0.
      0. 0. 0. 0. 0. 0. 0. 0. 0. 0. 0. 0. 0. 0. 0. 0. 0. 0. 0. 0. 0. 0.
      0. 0. 0. 0. 0. 0. 0. 0. 0. 0. 0. 0. 0. 0. 0. 0. 0. 0. 0. 0. 0. 0.
      0. 0. 0. 0. 0. 0. 0. 0. 0. 0. 0. 0. 0. 0. 0. 0. 0. 0. 0. 0.
      3.33333343e-01 0. 0. 0. 0. 0. 0. 0.</_>
    <_>
      6.66666687e-01 0. 0. 5.55555560e-02 0. 0. 0. 0. 0. 0. 0. 0. 0. 0.
      0. 5.55555560e-02 0. 0. 5.55555560e-02 0. 0. 5.55555560e-02 0. 0.
      0. 5.55555560e-02 0. 0. 0. 0. 0. 0. 0. 0. 0. 0. 0. 0. 0. 0. 0. 0.
      0. 0. 0. 0. 0. 0. 0. 0. 0. 0. 0. 0. 0. 0. 0. 0. 0. 0. 0. 0. 0. 0.
      0. 0. 0. 0. 0. 0. 0. 0. 0. 0. 0. 0. 0. 0. 0. 0. 0. 0. 0. 0. 0. 0.
      0. 0. 0. 0. 0. 0. 0. 0. 0. 0. 0. 0. 0. 0. 0. 0. 0. 0. 0. 0. 0. 0.
      0. 0. 0. 0. 0. 0. 0. 0. 0. 0. 0. 0. 0. 0. 0. 0. 0. 0. 0. 0. 0. 0.
      0. 0. 0. 0. 0. 0. 0. 0. 0. 0. 0. 0. 0. 0. 0. 0. 0. 0. 0. 0. 0. 0.
      0. 0. 0. 0. 0. 0. 5.55555560e-02 0. 0. 0. 0. 0. 0. 0.</_>
    <_>
      1.17647059e-01 0. 0. 0. 0. 0. 0. 0. 0. 0. 0. 0. 0. 0. 0. 0. 0. 0.
      5.88235296e-02 0. 0. 1.17647059e-01 0. 0. 0. 0. 0. 0. 0. 0.
      5.88235296e-02 0. 0. 0. 0. 0. 0. 0. 0. 0. 0. 0. 0. 0. 0. 0. 0. 0.
      0. 0. 0. 0. 0. 2.35294119e-01 0. 0. 0. 0. 0. 0. 5.88235296e-02 0.
      0. 0. 0. 0. 5.88235296e-02 0. 0. 0. 0. 0. 0. 0. 0. 0. 0. 0. 0. 0.
      0. 0. 0. 0. 0. 0. 0. 0. 0. 0. 0. 0. 0. 0. 0. 0. 0. 0. 0. 0. 0. 0.
      0. 0. 0. 0. 0. 0. 0. 0. 0. 0. 0. 0. 0. 0. 0. 0. 0. 0. 0. 0. 0. 0.
      0. 0. 0. 0. 0. 0. 0. 0. 0. 0. 0. 0. 0. 0. 0. 0. 0. 0. 0. 0. 0. 0.
      0. 0. 0. 0. 0. 0. 0. 0. 0. 0. 0. 0. 2.94117659e-01 0. 0. 0. 0. 0.
      0. 0.</_>
    <_>
      .Nan .Nan .Nan .Nan .Nan .Nan .Nan .Nan .Nan .Nan .Nan .Nan .Nan
      .Nan .Nan .Nan .Nan .Nan .Nan .Nan .Nan .Nan .Nan .Nan .Nan .Nan
      .Nan .Nan .Nan .Nan .Nan .Nan .Nan .Nan .Nan .Nan .Nan .Nan .Nan
      .Nan .Nan .Nan .Nan .Nan .Nan .Nan .Nan .Nan .Nan .Nan .Nan .Nan
      .Nan .Nan .Nan .Nan .Nan .Nan .Nan .Nan .Nan .Nan .Nan .Nan .Nan
      .Nan .Nan .Nan .Nan .Nan .Nan .Nan .Nan .Nan .Nan .Nan .Nan .Nan
      .Nan .Nan .Nan .Nan .Nan .Nan .Nan .Nan .Nan .Nan .Nan .Nan .Nan
      .Nan .Nan .Nan .Nan .Nan .Nan .Nan .Nan .Nan .Nan .Nan .Nan .Nan
      .Nan .Nan .Nan .Nan .Nan .Nan .Nan .Nan .Nan .Nan .Nan .Nan .Nan
      .Nan .Nan .Nan .Nan .Nan .Nan .Nan .Nan .Nan .Nan .Nan .Nan .Nan
      .Nan .Nan .Nan .Nan .Nan .Nan .Nan .Nan .Nan .Nan .Nan .Nan .Nan
      .Nan .Nan .Nan .Nan .Nan .Nan .Nan .Nan .Nan .Nan .Nan .Nan .Nan
      .Nan .Nan .Nan .Nan .Nan .Nan .Nan .Nan .Nan .Nan</_></support_vectors>
  <decision_functions>
    <_>
      <sv_count>9</sv_count>
      <rho>3.5929194871040927e+20</rho>
      <alpha>
        1.0000000000000001e-01 1.0000000000000001e-01
        1.0558818593389840e-15 1.0000000000000001e-01
        -1.0000000000000001e-01 -1.0000000000000001e-01
        -5.2939651835337455e-20 -2.5243605168636631e-26
        -1.0000000000000001e-01</alpha>
      <index>
        3 6 8 5 0 1 2 4 7</index></_></decision_functions></opencv_ml_svm>
</opencv_storage>
